/*!
 * The following copyright notice may not be removed under any circumstances.
 * 
 * Copyright:
 * Copyright (c) 2010 by Caroline Hadilaksono. All rights reserved.
 * 
 * Manufacturer:
 * Caroline Hadilaksono
 * 
 * Designer:
 * Caroline Hadilaksono
 * 
 * Vendor URL:
 * http://www.theleagueofmoveabletype.com/
 * 
 * License information:
 * http://scripts.sil.org/cms/scripts/page.php?site_id=nrsi&item_id=OFL_web
 */
Cufon.registerFont({"w":604,"face":{"font-family":"Junction","font-weight":400,"font-stretch":"normal","units-per-em":"1000","panose-1":"0 0 0 0 0 0 0 0 0 0","ascent":"750","descent":"-250","x-height":"12","bbox":"-36 -842 1006 275","underline-thickness":"50","underline-position":"-50","stemh":"20","unicode-range":"U+0020-U+007E"},"glyphs":{" ":{"w":260},"h":{"d":"168,0r-84,0r0,-820r84,0r0,376v61,-59,150,-118,240,-118v91,0,127,65,127,171r0,391r-84,0r0,-391v0,-54,-12,-87,-43,-87v-104,0,-194,83,-240,131r0,347"},"i":{"d":"94,-550r83,0r0,550r-83,0r0,-550xm84,-719v0,-29,22,-51,52,-51v29,0,51,22,51,51v0,30,-22,52,-51,52v-30,0,-52,-22,-52,-52","w":271},"j":{"d":"43,-550r83,0r0,593v0,126,-76,211,-137,232r-25,-79v39,-5,79,-74,79,-153r0,-593xm33,-719v0,-29,22,-51,52,-51v29,0,51,22,51,51v0,30,-22,52,-51,52v-30,0,-52,-22,-52,-52","w":220},"k":{"d":"569,0r-113,0v-27,-9,-156,-167,-216,-233v-20,-21,-33,-32,-48,-36v-8,-2,-20,0,-24,1r0,268r-84,0r0,-820r84,0r0,464v10,-7,183,-123,219,-194r85,0v-15,57,-143,160,-228,224v18,7,38,19,56,39v66,77,252,287,269,287","w":553,"k":{"e":14,"c":14,"o":14}},"l":{"d":"84,-820r83,0r0,674v0,23,0,53,13,66v15,15,36,21,64,21r-3,71v-31,0,-91,-3,-122,-34v-35,-35,-35,-87,-35,-124r0,-674","w":278},"m":{"d":"168,0r-84,0r0,-550r84,0r0,99v52,-57,121,-111,208,-111v76,0,114,36,124,114v52,-58,123,-114,211,-114v91,0,127,65,127,171r0,391r-84,0r0,-391v0,-54,-12,-87,-43,-87v-102,0,-168,81,-208,129r0,349r-84,0r0,-391v0,-54,-12,-87,-43,-87v-95,0,-168,81,-208,129r0,349","w":907},"n":{"d":"168,0r-84,0r0,-550r84,0r0,106v61,-59,150,-118,240,-118v91,0,127,65,127,171r0,391r-84,0r0,-391v0,-54,-12,-87,-43,-87v-100,0,-187,77,-240,131r0,347"},"o":{"d":"54,-275v0,-210,119,-287,239,-287v120,0,239,78,239,287v0,212,-119,287,-239,287v-120,0,-239,-70,-239,-287xm448,-275v0,-155,-79,-218,-155,-218v-76,0,-155,58,-155,218v0,158,79,219,155,219v76,0,155,-58,155,-219","w":586,"k":{"t":12,"s":8}},"p":{"d":"166,260r-82,0r0,-810r82,0r0,92v45,-58,114,-105,204,-104v122,1,198,133,198,278v0,187,-88,296,-231,296v-50,0,-115,-31,-171,-76r0,324xm370,-480v-104,-1,-172,80,-204,130r0,194v49,49,119,86,171,86v89,0,147,-79,147,-214v0,-101,-44,-195,-114,-196","w":622},"q":{"d":"252,12v-122,-1,-198,-133,-198,-278v0,-187,88,-296,231,-296v49,0,115,21,171,66r0,-54r84,0r0,810r-84,0r0,-365v-46,57,-115,118,-204,117xm252,-67v104,2,172,-92,204,-143r0,-184v-50,-48,-119,-90,-171,-90v-89,0,-147,83,-147,218v0,101,44,198,114,199","w":624},"r":{"d":"84,-550r84,0r0,75v35,-60,83,-87,139,-87v86,0,133,55,133,55r-58,56v0,0,-24,-31,-71,-31v-64,0,-114,77,-143,138r0,344r-84,0r0,-550","w":436,"k":{"e":5,"c":5,"o":5,"s":4}},"s":{"d":"156,-405v0,47,56,64,114,82v89,27,183,54,183,172v0,111,-97,163,-194,163v-81,0,-168,-37,-215,-112r58,-47v30,55,95,88,159,89v55,0,109,-30,109,-93v0,-57,-65,-78,-124,-96v-84,-25,-173,-55,-173,-158v0,-134,122,-157,175,-157v72,0,134,25,173,64r-54,52v-26,-28,-70,-46,-119,-46v-29,0,-92,13,-92,87","w":502},"t":{"d":"44,-482r0,-70r70,0r0,-198r84,0r0,198r132,0r0,70r-132,0r0,322v0,37,0,99,52,99v33,0,58,-15,83,-39r51,49v-44,46,-93,63,-156,63v-84,0,-114,-68,-114,-172r0,-322r-70,0","w":398},"u":{"d":"196,-69v99,0,187,-78,240,-133r0,-348r84,0r0,550r-84,0r0,-97v-62,59,-151,109,-240,109v-91,0,-127,-65,-127,-171r0,-391r84,0r0,391v0,54,12,90,43,90"},"v":{"d":"15,-550r97,0r143,425r3,19v1,5,2,-16,3,-19v45,-171,129,-399,158,-425r91,0v-78,84,-212,550,-212,550r-73,0","w":522,"k":{"o":8,"c":8,"e":8,"a":8,"i":5,"l":5,"I":5,"|":5}},"w":{"d":"263,0r-79,0r-159,-550r91,0r109,410r3,21r3,-21r117,-410r72,0r117,410r4,21r3,-21v40,-151,107,-400,126,-410r82,0v-27,27,-174,550,-174,550r-71,0r-123,-424","w":777,"k":{"o":8,"c":8,"e":8,"a":8,"i":5,"l":5,"I":5,"|":5}},"x":{"d":"54,-550r106,0r136,199v47,-70,135,-195,148,-199r104,0v-21,10,-157,200,-205,268r200,282r-106,0r-142,-212v-45,65,-143,208,-157,212r-104,0v22,-10,179,-230,214,-281","w":582},"y":{"d":"16,-550r89,0r149,386v69,-169,153,-370,172,-386r95,0v-28,27,-43,54,-261,589v-25,62,-51,126,-102,175v-54,52,-107,59,-142,61r-21,-73v61,-4,85,-22,106,-43v24,-23,42,-50,80,-142r27,-67","w":513,"k":{"o":8,"c":8,"e":8,"a":8,"i":5,"l":5,"I":5,"|":5}},"z":{"d":"477,-88r0,71v-13,15,-72,17,-72,17r-356,0r0,-71r310,-409r-310,0r0,-70r411,0r0,70r-310,409r256,0v0,0,55,0,71,-17","w":516},"d":{"d":"254,8v-122,-1,-200,-129,-200,-274v0,-187,90,-296,233,-296v54,0,114,27,171,76r0,-334r84,0r0,688v0,0,-6,71,58,92r-53,54v-69,-25,-80,-76,-84,-107v-53,60,-123,102,-209,101xm254,-73v106,8,172,-82,204,-133r0,-183v-55,-54,-119,-91,-171,-91v-89,0,-147,79,-147,214v0,101,44,188,114,193","w":639},".":{"d":"44,-53v0,-33,25,-57,60,-57v33,0,57,24,57,57v0,35,-24,60,-57,60v-35,0,-60,-25,-60,-60","w":205},",":{"d":"39,-49v0,-32,24,-55,56,-55v43,0,61,36,61,82v-1,55,-27,118,-69,170r-46,-25v29,-36,51,-72,58,-116v-36,0,-60,-24,-60,-56","w":200},":":{"d":"69,-53v0,-33,25,-57,60,-57v33,0,57,24,57,57v0,35,-24,60,-57,60v-35,0,-60,-25,-60,-60xm69,-413v0,-33,25,-57,60,-57v33,0,57,24,57,57v0,35,-24,60,-57,60v-35,0,-60,-25,-60,-60","w":255},";":{"d":"74,-49v0,-32,24,-55,56,-55v43,0,61,36,61,82v-1,55,-27,118,-69,170r-46,-25v29,-36,51,-72,58,-116v-36,0,-60,-24,-60,-56xm69,-413v0,-33,25,-57,60,-57v33,0,57,24,57,57v0,35,-24,60,-57,60v-35,0,-60,-25,-60,-60","w":260},"?":{"d":"383,-640v0,-40,-11,-110,-124,-110v-103,0,-166,120,-166,120r-53,-50v0,0,79,-140,219,-140v179,0,208,114,208,180v0,108,-82,179,-153,243v-44,40,-80,76,-80,104v0,32,19,50,53,80r-58,48v-42,-38,-72,-67,-72,-129v0,-64,45,-110,104,-163v57,-52,119,-113,122,-183xm194,-49v0,-32,24,-55,56,-55v32,0,55,23,55,55v0,32,-23,56,-55,56v-32,0,-56,-24,-56,-56","w":502},"-":{"d":"290,-310r0,70r-236,0r0,-70r236,0","w":344},"Z":{"d":"562,-98r0,83v-28,15,-118,15,-118,15r-395,0r0,-82r385,-606r-375,0r0,-82r482,0r0,80r-385,608r290,0v0,0,72,0,116,-16","w":611},"D":{"d":"172,0r-88,0r0,-757v97,-12,145,-18,207,-18v185,0,362,58,362,395v0,242,-129,380,-314,380r-167,0xm565,-380v0,-189,-58,-320,-272,-320v-65,0,-106,9,-121,11r0,613r167,0v129,0,226,-114,226,-304","w":712},"A":{"d":"308,-770r92,0r284,770r-93,0r-97,-262r-281,0r-96,262r-93,0xm354,-672v-1,19,-4,37,-7,48r-106,286r225,0r-106,-286v0,0,-6,-23,-6,-48","w":708,"k":{"T":50}},"B":{"d":"299,-775v141,0,235,49,243,217v-1,81,-33,129,-78,158v94,41,112,127,112,173v0,60,0,230,-264,227r-140,0r-88,0r0,-757v50,-5,124,-18,215,-18xm172,-351r0,275r140,0v175,0,178,-97,178,-151v0,-33,-18,-124,-165,-124r-153,0xm457,-560v-1,-102,-53,-132,-118,-138v-59,-5,-119,2,-167,8r0,263v154,0,277,15,285,-133","w":635},"G":{"d":"663,-378r0,231v0,91,-124,160,-241,162v-295,0,-363,-224,-363,-383v0,-312,207,-417,358,-417v156,0,240,118,240,118r-59,58v0,0,-64,-100,-177,-100v-108,0,-271,94,-271,341v0,122,49,303,268,303v59,0,161,-44,161,-91r0,-144r-90,0v-24,0,-63,2,-91,-13r0,-72v32,8,71,7,94,7r171,0","w":748},"_":{"d":"605,0r0,64r-551,0r0,-64r551,0","w":659},"C":{"d":"593,-680r-58,56v0,0,-48,-77,-165,-77v-110,0,-221,112,-221,338v0,168,101,296,221,299v130,3,196,-89,197,-89r55,55v-31,26,-89,118,-257,113v-177,-5,-306,-162,-306,-378v0,-277,152,-422,312,-422v162,0,222,105,222,105","w":642},"^":{"d":"290,-550r72,0r251,550r-72,0r-215,-471r-215,471r-72,0","w":652},"E":{"d":"521,0r-437,0r0,-770r318,0v65,0,105,-5,105,-5r0,80r-335,0r0,258r285,0r0,76r-285,0r0,285r244,0v65,0,105,-5,105,-5r0,81","w":560},"F":{"d":"172,0r-88,0r0,-770r318,0v65,0,105,-5,105,-5r0,79r-335,0r0,259r285,0r0,76r-285,0r0,361","w":538,"k":{"e":7,"c":7,"a":9,"o":7}},"H":{"d":"172,0r-88,0r0,-770r88,0r0,334r396,0r0,-334r88,0r0,770r-88,0r0,-360r-396,0r0,360","w":740},"I":{"d":"172,0r-88,0r0,-770r88,0r0,770","w":256},"J":{"d":"113,-770r88,0r0,787v0,161,-112,220,-180,242r-32,-79v61,-17,124,-64,124,-163r0,-787","w":284},"O":{"d":"380,-785v147,0,315,90,316,399v0,315,-161,401,-319,401v-147,0,-318,-85,-318,-399v0,-313,171,-401,321,-401xm380,-710v-104,0,-233,79,-233,324v0,249,129,325,230,325v110,0,230,-75,231,-323v0,-244,-121,-326,-228,-326","w":755,"k":{"x":10}},"K":{"d":"84,-770r88,0r0,341r266,-341r109,0r-282,360v26,3,70,24,100,56v44,47,174,286,233,354r-1,0r-103,0v-34,-36,-155,-255,-186,-294v-35,-44,-82,-56,-136,-44r0,338r-88,0r0,-770","w":612,"k":{"e":5,"c":5,"y":8,"w":8,"v":8,"o":5}},"L":{"d":"84,0r0,-770r88,0r0,694r244,0v65,0,105,-5,105,-5r0,81r-437,0","w":555,"k":{"Y":90}},"M":{"d":"172,0r-88,0r0,-770r88,0r251,660r1,7r1,-7r252,-660r88,0r0,770r-88,0r0,-540r1,-17r-4,17r-207,540r-85,0r-207,-540r-4,-16r1,16r0,540","w":849},"N":{"d":"172,0r-88,0r0,-770r88,0r0,1r372,605r7,14r-1,-14r0,-606r88,0r0,770r-88,0r0,-1r-372,-607r-7,-14r1,14r0,608","w":722},"T":{"d":"7,-694r0,-76r542,0r0,76r-229,0r0,694r-88,0r0,-694r-225,0","w":556,"k":{"e":30,"c":30,"a":35,"o":30}},"Q":{"d":"380,-785v147,0,315,90,316,399v0,283,-130,381,-270,398v18,21,46,49,108,49v28,0,61,-5,94,-16r22,72v-27,12,-86,17,-116,17v-130,-2,-191,-80,-208,-123v-133,-18,-267,-117,-267,-395v0,-313,171,-401,321,-401xm380,-710v-104,0,-233,79,-233,324v0,249,129,325,230,325v110,0,230,-75,231,-323v0,-244,-121,-326,-228,-326","w":755},"P":{"d":"172,0r-88,0r0,-770r88,0r0,30v46,-27,105,-45,164,-45v137,0,232,104,232,253v0,192,-89,292,-239,292v-68,0,-116,-24,-157,-52r0,292xm483,-532v0,-103,-66,-176,-176,-176v-47,0,-92,19,-135,51r0,272v46,41,101,65,161,65v89,0,150,-69,150,-212","w":617,"k":{"e":8,"c":8,"a":8,"o":8}},"R":{"d":"172,0r-88,0r0,-770r88,0r0,31v53,-33,106,-45,169,-46v126,0,205,84,213,220v-1,157,-88,218,-174,236v88,71,167,253,263,327r0,2r-107,0v-87,-69,-178,-290,-283,-322r-81,0r0,322xm320,-397v64,-1,147,-32,148,-168v0,-85,-54,-141,-141,-141v-58,0,-106,16,-155,49r0,260r148,0","w":653,"k":{"e":5,"c":5,"a":5,"o":5}},"S":{"d":"54,-136r62,-55v52,84,114,124,207,126v86,0,160,-47,160,-143v0,-94,-84,-121,-176,-149v-117,-36,-226,-77,-224,-215v3,-183,151,-213,222,-213v98,0,162,33,215,96r-60,51v-39,-41,-81,-67,-155,-67v-45,0,-131,18,-136,133v-3,76,76,105,162,131v117,36,238,83,238,233v0,150,-118,223,-248,223v-121,-4,-203,-49,-267,-151","w":618,"k":{"e":5,"c":5,"o":5}},"U":{"d":"599,-239v-1,225,-173,251,-257,251v-85,0,-257,-28,-258,-251r0,-531r88,0r0,529v0,155,113,176,170,176v56,0,168,-25,169,-174r0,-531r88,0r0,531","w":683},"{":{"d":"283,-830v66,0,116,33,116,33r-28,70v0,0,-28,-19,-88,-19v-20,0,-24,45,-24,68r0,299v0,3,-3,62,-64,97v63,35,64,93,64,97r0,299v0,23,4,68,24,68v60,0,88,-19,88,-19r28,70v0,0,-50,33,-116,33v-92,0,-108,-101,-108,-152r0,-298v0,0,0,-73,-96,-73r0,-50v97,0,96,-73,96,-73r0,-298v0,-51,16,-152,108,-152","w":468},"V":{"d":"388,0r-92,0r-274,-770r93,0r224,633r3,13r3,-13r224,-633r93,0","w":684,"k":{"m":15,"n":15,"p":15,"r":15,"o":48,"c":48,"e":48,"a":48,"q":40,"d":40,"u":20,"A":60}},"W":{"d":"316,0r-73,0r-218,-770r90,0r162,610r2,12r2,-12r160,-610r93,0r160,612r2,12r2,-12r162,-612r91,0r-218,770r-73,0r-170,-594r-3,-18r-3,18","w":976,"k":{"m":15,"n":15,"p":15,"r":15,"o":48,"c":48,"e":48,"a":48,"q":40,"d":40,"u":20,"A":60}},"X":{"d":"519,-770r107,0r-245,386r245,384r-107,0r-192,-299r-190,299r-108,0r244,-384r-244,-386r105,0r193,301","w":655,"k":{"e":40,"c":40,"a":35,"o":40}},"Y":{"d":"507,-770r99,0r-254,401r0,369r-87,0r0,-369r-256,-401r103,0r197,309","w":615,"k":{"o":60,"c":60,"e":60,"a":60,"q":50,"d":50}},"0":{"d":"59,-279v0,-225,128,-294,246,-294v118,0,246,69,246,294v0,225,-128,294,-246,294v-118,0,-246,-69,-246,-294xm467,-279v0,-169,-84,-220,-162,-220v-78,0,-162,51,-162,220v0,169,84,220,162,220v78,0,162,-51,162,-220","w":610},"1":{"d":"281,0r-89,0r0,-470r-89,75r-54,-62r143,-108r89,0r0,565","w":363},"2":{"d":"112,-401v0,0,-54,-54,-54,-55v29,-48,90,-120,200,-121v115,0,190,63,190,181v0,121,-186,272,-264,320r298,0r0,76r-433,0r0,-64v2,0,314,-222,314,-332v-1,-73,-47,-105,-106,-104v-97,1,-145,99,-145,99","w":536},"3":{"d":"102,-428r-47,-46v0,0,53,-102,175,-102v90,0,168,65,168,157v0,62,-44,108,-88,143v93,12,172,87,175,188v0,201,-168,292,-286,292v-95,1,-165,-61,-165,-61r53,-50v0,0,38,34,112,31v82,0,204,-65,204,-212v0,-62,-56,-121,-121,-121v-71,0,-140,26,-141,25r0,-68v93,-35,175,-84,175,-167v0,-48,-41,-78,-85,-78v-92,0,-129,69,-129,69","w":543},"4":{"d":"592,-76r0,76r-105,0r0,204r-89,0r0,-204r-364,0r0,-47r392,-519r61,0r0,490r105,0xm163,-76r235,0r0,-336r-240,325r-14,14r0,1","w":621},"5":{"d":"178,-490r0,200v29,-13,60,-26,111,-26v160,0,244,96,244,225v0,210,-108,295,-255,295v-131,0,-209,-86,-209,-86r48,-59v0,0,72,71,161,71v96,0,174,-64,174,-219v0,-69,-52,-154,-163,-154v-45,0,-90,7,-133,36r-66,0r0,-358r386,0r0,75r-298,0","w":596},"6":{"d":"340,-461v112,0,209,58,209,224v0,93,-56,252,-233,252v-161,0,-253,-129,-253,-359v0,-226,119,-421,283,-421v87,0,157,54,172,65r-53,55v0,0,-48,-41,-115,-41v-154,0,-205,222,-208,355v66,-102,138,-130,198,-130xm316,-58v114,0,150,-114,150,-179v0,-113,-59,-150,-126,-150v-56,0,-127,34,-187,162v21,107,79,167,163,167","w":608},"7":{"d":"45,-483r0,-83r432,0r0,59v-80,169,-333,661,-416,697r-57,-53v62,-38,275,-423,371,-620r-330,0","w":506},"9":{"d":"268,-89v-112,0,-209,-58,-209,-224v0,-93,56,-252,233,-252v161,0,253,129,253,359v0,226,-119,421,-283,421v-87,0,-157,-54,-172,-65r53,-55v0,0,48,41,115,41v154,0,205,-222,208,-355v-66,102,-138,130,-198,130xm292,-492v-114,0,-150,114,-150,179v0,113,59,150,126,150v56,0,127,-34,187,-162v-21,-107,-79,-167,-163,-167","w":608},"8":{"d":"499,-601v0,103,-97,179,-153,213v88,62,172,132,172,224v0,188,-215,179,-228,179v-12,0,-226,6,-226,-179v1,-103,88,-185,153,-225v-74,-59,-134,-128,-134,-212v0,-124,109,-164,207,-164v98,0,209,40,209,164xm435,-164v0,-60,-77,-123,-163,-186v-55,35,-121,99,-127,186v0,113,137,109,145,109v9,0,145,5,145,-109xm287,-431v38,-20,128,-81,128,-170v0,-78,-65,-99,-125,-99v-59,0,-125,21,-125,99v0,64,58,118,122,170","w":582},"&":{"d":"59,-200v0,-106,82,-169,177,-222v-61,-67,-103,-124,-103,-184v0,-125,112,-164,212,-164v100,0,208,39,208,164v0,87,-92,142,-194,194r184,197v33,-52,56,-106,86,-166r65,32v-33,66,-63,132,-98,189v52,51,93,82,103,85v22,7,46,1,71,-56r60,35v-46,105,-95,107,-131,101v-26,-4,-83,-40,-149,-101v-54,62,-127,103,-240,103v-103,0,-251,-56,-251,-207xm283,-373v-76,42,-140,93,-140,173v0,89,121,126,167,126v83,-1,140,-33,184,-77xm469,-606v0,-79,-64,-102,-124,-102v-60,0,-128,23,-128,102v0,36,39,85,95,144v81,-41,157,-84,157,-144","w":884},"`":{"d":"54,-756r104,0r131,146r-69,0","w":343},"$":{"d":"282,67r0,-53v-100,-12,-171,-57,-228,-148r62,-55v44,71,95,111,166,123r0,-299v-107,-35,-201,-80,-199,-208v2,-165,123,-205,199,-212r0,-57r68,0r0,59v73,9,125,40,170,93r-60,51v-31,-32,-63,-55,-110,-63r0,266v111,36,219,89,219,231v0,139,-101,211,-219,221r0,51r-68,0xm483,-205v0,-79,-60,-113,-133,-139r0,280v74,-9,133,-55,133,-141xm169,-573v-3,61,48,92,113,115r0,-246v-47,6,-109,34,-113,131","w":618},"}":{"d":"185,-746v-60,0,-88,19,-88,19r-28,-70v0,0,50,-33,116,-33v92,0,108,101,108,152r0,298v0,0,-1,73,96,73r0,50v-93,0,-96,67,-96,72r0,299v0,51,-16,152,-108,152v-66,0,-116,-33,-116,-33r28,-70v0,0,28,19,88,19v20,0,24,-45,24,-68r0,-298v0,0,1,-62,63,-98v-62,-35,-63,-93,-63,-97r0,-299v0,-23,-4,-68,-24,-68","w":468},"|":{"d":"160,260r-76,0r0,-1090r76,0r0,1090","w":244},"@":{"d":"420,-19v-96,-1,-135,-76,-135,-187v0,-220,165,-373,276,-373v50,0,101,12,145,80v8,-36,14,-59,14,-59r78,18v0,0,-102,453,-102,458v9,9,240,-38,230,-266v0,-162,-134,-342,-373,-342v-221,0,-419,209,-419,429v0,220,198,378,419,378v103,0,180,-10,324,-129r50,62v-164,135,-253,147,-374,147v-265,0,-499,-194,-499,-458v0,-264,234,-509,499,-509v291,0,453,218,453,422v0,272,-248,329,-323,329v-59,0,-73,-37,-62,-89v-52,46,-122,90,-201,89xm365,-206v0,76,16,119,56,121v110,2,209,-127,228,-154r37,-168v-40,-97,-83,-107,-125,-107v-79,0,-196,124,-196,308","w":1060},"\/":{"d":"250,-770r83,0r-231,770r-83,0","w":352},"!":{"d":"182,-184r-73,0r-13,-636r99,0xm84,-56v0,-35,27,-61,63,-61v35,0,61,26,61,61v0,36,-26,63,-61,63v-36,0,-63,-27,-63,-63","w":292},"(":{"d":"301,-770r6,70v-133,47,-164,321,-164,446v0,124,31,399,164,445r-6,70v-192,-20,-242,-370,-242,-515v0,-144,51,-500,242,-516","w":336},"\\":{"d":"24,-770r83,0r231,770r-83,0","w":362},")":{"d":"29,-700r6,-70v191,16,242,372,242,516v0,145,-50,495,-242,515r-6,-70v133,-46,164,-321,164,-445v0,-125,-31,-399,-164,-446","w":336},"\"":{"d":"215,-714v0,-32,24,-55,56,-55v43,0,61,36,61,82v-1,55,-27,118,-69,170r-46,-25v29,-36,51,-72,58,-116v-36,0,-60,-24,-60,-56xm44,-714v0,-32,24,-55,56,-55v43,0,61,36,61,82v-1,55,-27,118,-69,170r-46,-25v29,-36,51,-72,58,-116v-36,0,-60,-24,-60,-56","w":376},"~":{"d":"90,-296r-36,-53v0,0,42,-41,141,-52v36,-4,82,6,128,18v41,9,93,20,130,16v78,-9,111,-36,111,-36r32,56v0,0,-48,39,-135,48v-45,5,-96,-6,-147,-18v-40,-10,-80,-18,-111,-15v-86,9,-113,36,-113,36","w":650},"'":{"d":"44,-715v0,-32,24,-55,56,-55v43,0,61,36,61,82v-1,55,-27,118,-69,170r-46,-25v29,-36,51,-72,58,-116v-36,0,-60,-24,-60,-56","w":205},"+":{"d":"352,0r-67,0r0,-242r-236,0r0,-67r236,0r0,-241r67,0r0,241r247,0r0,67r-247,0r0,242","w":648},"]":{"d":"69,260r0,-60r120,0r0,-910r-120,0r0,-60r204,0r0,1030r-204,0","w":357},"%":{"d":"59,-570v1,-162,102,-208,189,-209v89,0,190,46,190,211v-1,162,-102,208,-189,208v-87,0,-190,-47,-190,-210xm740,-814r96,0r-580,861r-96,0xm248,-713v-53,1,-104,24,-104,143v0,120,52,144,105,144v53,0,103,-23,104,-142v0,-122,-51,-145,-105,-145xm563,-195v1,-162,102,-208,189,-209v89,0,190,46,190,211v-1,162,-102,208,-189,208v-87,0,-190,-47,-190,-210xm752,-338v-53,1,-104,24,-104,143v0,120,52,144,105,144v53,0,103,-23,104,-142v0,-122,-51,-145,-105,-145","w":1001},"=":{"d":"605,-395r0,67r-551,0r0,-67r551,0xm605,-235r0,67r-551,0r0,-67r551,0","w":659},"[":{"d":"288,-770r0,60r-120,0r0,910r120,0r0,60r-204,0r0,-1030r204,0","w":357},"#":{"d":"94,-488r17,-72r171,0r52,-210r74,0r-52,210r176,0r52,-210r74,0r-52,210r178,0r-17,72r-179,0r-43,177r184,0r-17,72r-185,0r-58,239r-74,0r58,-239r-176,0r-58,239r-74,0r58,-239r-164,0r17,-72r165,0r43,-177r-170,0xm338,-488r-43,177r176,0r43,-177r-176,0","w":823},"<":{"d":"74,-244r0,-72r555,-251r0,72r-476,215r476,215r0,72","w":698},">":{"d":"624,-316r0,72r-555,251r0,-72r475,-215r-475,-215r0,-72","w":698},"*":{"d":"48,-567r25,-65r202,81r-2,-219r70,0r-2,219r202,-81r25,65r-207,81r144,160r-58,49r-139,-172r-138,172r-60,-49r144,-160","w":616},"a":{"d":"110,-407v0,-1,-34,-66,-33,-68v36,-20,153,-87,264,-87v115,0,133,106,133,158r0,296v0,4,-1,44,54,70r-54,50v-48,-19,-68,-51,-77,-86v-48,51,-114,86,-188,86v-22,0,-155,-11,-155,-150v0,-71,29,-155,198,-180v73,-10,115,-17,139,-23r0,-63v0,-21,-5,-80,-62,-80v-85,0,-219,78,-219,77xm206,-58v70,5,145,-43,185,-93r0,-118v-30,6,-65,11,-130,21v-109,17,-125,64,-125,110v0,69,55,79,70,80","w":562},"b":{"d":"353,-562v149,0,217,133,217,278v0,187,-88,296,-231,296v-50,0,-116,-21,-172,-66r0,54r-83,0r0,-820r83,0r0,341v44,-48,96,-83,186,-83xm353,-480v-97,-1,-154,54,-186,104r0,230v49,49,120,79,172,79v89,0,147,-82,147,-217v0,-101,-45,-195,-133,-196","w":624},"c":{"d":"290,-562v113,0,169,88,169,88r-53,50v0,0,-34,-63,-118,-63v-69,0,-150,72,-150,222v0,110,57,203,145,203v39,0,75,-7,134,-63r52,50v-79,81,-135,87,-186,87v-138,0,-229,-121,-229,-277v0,-207,129,-297,236,-297","w":508},"g":{"d":"161,-388v0,114,84,127,134,127v50,0,133,-22,133,-127v0,-82,-83,-112,-133,-112v-50,0,-134,30,-134,112xm92,-122v0,-35,31,-72,71,-104v-46,-26,-85,-74,-85,-162v0,-125,135,-176,217,-176v20,0,43,3,67,9v41,-37,98,-59,151,-59v19,0,40,4,60,10r-14,70v-12,-4,-28,-6,-46,-6v-28,0,-57,6,-81,16v44,28,79,72,79,136v0,159,-134,191,-216,191v-18,0,-39,-1,-60,-5v-32,23,-59,52,-59,80v7,7,97,7,120,8v131,7,284,31,284,164v0,121,-88,225,-281,225v-126,0,-240,-81,-240,-177v1,-88,36,-120,84,-155v-28,-12,-51,-31,-51,-65xm299,202v135,0,198,-71,198,-152v0,-73,-111,-85,-202,-90v-19,0,-45,-1,-72,-1v-47,29,-82,54,-82,139v0,58,82,104,158,104","w":613},"e":{"d":"54,-269v0,-160,92,-293,236,-293v205,0,222,205,222,244r0,39r-375,0v-5,130,51,219,157,219v29,0,94,3,170,-97r51,49v-100,124,-180,120,-221,120v-160,0,-240,-130,-240,-281xm290,-490v-74,0,-120,60,-142,137r279,0v-9,-56,-43,-137,-137,-137","w":577,"k":{"a":4}},"f":{"d":"186,-646r0,96r162,0r0,70r-162,0r0,480r-83,0r0,-480r-71,0r0,-70r71,0r0,-96v0,-103,40,-179,155,-179v79,0,174,64,174,64r-51,51v0,0,-71,-45,-123,-45v-67,0,-71,48,-72,109","w":393,"k":{"e":10,"c":10,"a":5,"o":10}},"\u00a0":{"w":260}}});
